{
  "modelName": "AlphaSiegeTinyPolicy",
  "modelVersion": "1.1",
  "createdAt": "2026-06-28 12:35:57",
  "trainingSource": "replay+teacher",
  "trainingSamples": 9000,
  "replayRecords": 51702,
  "syntheticRatio": 0.25,
  "inputSize": 32,
  "inputNames": [
    "turn",
    "wood",
    "stone",
    "iron",
    "gold",
    "handTowers",
    "handSpells",
    "collectors",
    "castleUse",
    "resourceUse",
    "woodTowers",
    "stoneTowers",
    "ironTowers",
    "goldTowers",
    "highWalls",
    "crossbows",
    "cannons",
    "catapults",
    "repairs",
    "shields",
    "recons",
    "mages",
    "recentDamageDealt",
    "recentDamageReceived",
    "targetHints",
    "visibleEnemyTowers",
    "preparationPhase",
    "woodShortage",
    "stoneShortage",
    "ironShortage",
    "goldShortage",
    "mistakeRate"
  ],
  "towerOutputOrder": [
    0,
    1,
    2,
    3,
    4,
    5,
    6,
    7,
    8,
    9,
    10,
    11,
    12
  ],
  "spellOutputOrder": [
    0,
    1,
    2,
    3,
    4
  ],
  "outputScale": 12.0,
  "targetOutputScale": 10.0,
  "spellOutputScale": 8.0,
  "hidden": [
    {
      "weights": [
        -0.612426,
        -1.61197,
        0.934135,
        0.957107,
        0.884293,
        -0.768055,
        0.613361,
        0.594869,
        0.158477,
        0.590553,
        1.273268,
        -0.693054,
        -0.127967,
        -0.140693,
        0.245633,
        0.289189,
        0.870874,
        0.732326,
        -0.258679,
        0.337136,
        0.568222,
        0.337454,
        0.687509,
        0.404677,
        0.532947,
        0.520754,
        0.376431,
        -0.144646,
        -0.527375,
        -0.445578,
        -0.189584,
        0.279902
      ],
      "bias": 0.934589
    },
    {
      "weights": [
        0.460689,
        -0.004139,
        0.039385,
        -0.087393,
        0.580067,
        0.014031,
        -0.136636,
        0.562326,
        -0.021536,
        0.185228,
        0.007441,
        -0.133229,
        -0.351759,
        0.353531,
        -0.510504,
        -0.0947,
        0.155414,
        -0.041013,
        -0.084961,
        0.205013,
        -0.046247,
        -0.338905,
        0.330324,
        -0.727627,
        -0.072523,
        0.051638,
        0.018079,
        -0.090721,
        -0.151829,
        0.103496,
        -0.07558,
        0.006381
      ],
      "bias": 0.078012
    },
    {
      "weights": [
        -0.284703,
        0.063262,
        0.135483,
        0.047346,
        0.059729,
        -0.008264,
        -0.017084,
        -0.093732,
        0.042179,
        0.09033,
        -0.644681,
        0.616176,
        0.607786,
        -0.260702,
        0.038365,
        0.079772,
        0.019866,
        0.08524,
        0.030607,
        -0.040291,
        0.025475,
        -0.060876,
        0.03764,
        -0.118053,
        -0.14376,
        -0.123323,
        0.177724,
        0.30382,
        -0.151071,
        -0.350314,
        -0.052303,
        -0.149321
      ],
      "bias": -0.089157
    },
    {
      "weights": [
        -1.039808,
        -2.362469,
        -2.825172,
        -0.699782,
        -0.272798,
        0.188422,
        -0.016822,
        -0.868629,
        -0.482035,
        0.059253,
        -0.405,
        0.128241,
        -0.138936,
        -0.136297,
        0.570767,
        0.275354,
        -0.225503,
        -0.535546,
        0.021545,
        0.236516,
        0.298782,
        -0.311412,
        -0.09017,
        0.103194,
        -0.041965,
        0.049452,
        0.208763,
        0.145253,
        0.00778,
        0.958585,
        -0.189148,
        -0.434658
      ],
      "bias": -0.37647
    },
    {
      "weights": [
        -0.311174,
        0.114187,
        -0.071372,
        -0.12744,
        0.206466,
        -0.032918,
        -0.032313,
        0.364192,
        0.132735,
        0.076108,
        -0.261054,
        -0.39015,
        0.115275,
        0.256058,
        0.155046,
        0.191587,
        0.07724,
        0.188612,
        0.089912,
        0.13717,
        -0.028609,
        -0.082454,
        -0.107379,
        -0.702834,
        -0.198861,
        -0.009706,
        -0.085677,
        0.254032,
        0.22846,
        -0.150028,
        0.027032,
        -0.081779
      ],
      "bias": -0.07974
    },
    {
      "weights": [
        -0.504548,
        0.158212,
        0.139924,
        0.019291,
        -0.011286,
        -0.171159,
        -0.116147,
        1.096141,
        0.07085,
        0.268385,
        0.40944,
        -0.259229,
        0.088551,
        -0.358802,
        -0.142764,
        0.232335,
        0.27725,
        0.204437,
        -0.178977,
        0.064103,
        0.044634,
        -0.113603,
        0.330843,
        0.007461,
        -0.10792,
        -0.705968,
        0.063514,
        -0.104592,
        0.228325,
        -0.06447,
        0.131221,
        -0.037511
      ],
      "bias": -0.429149
    },
    {
      "weights": [
        -0.491407,
        -0.342517,
        -0.766289,
        -1.740076,
        -0.379695,
        -0.097691,
        -0.662342,
        -1.144046,
        0.267316,
        0.372649,
        0.843309,
        -0.312361,
        -0.05111,
        0.31035,
        0.269463,
        0.116041,
        -0.044233,
        0.100118,
        -0.016844,
        0.043046,
        -1.011338,
        0.252313,
        -1.195335,
        -0.41344,
        -0.910628,
        -0.496794,
        0.380401,
        0.034133,
        0.124729,
        0.225954,
        -0.008999,
        -0.108986
      ],
      "bias": -0.296887
    },
    {
      "weights": [
        -0.365101,
        -0.018766,
        0.827747,
        -0.481606,
        -0.615997,
        0.333383,
        -0.260454,
        -0.59352,
        -0.004116,
        -0.084991,
        0.129677,
        0.006766,
        -0.394318,
        0.003295,
        0.137472,
        0.146153,
        0.101539,
        -0.683117,
        -0.532049,
        -0.021606,
        -0.242755,
        -0.007497,
        -0.198432,
        -0.374603,
        -0.206716,
        -0.253557,
        -0.387762,
        0.161478,
        -0.091841,
        0.308217,
        0.089621,
        -0.038539
      ],
      "bias": -0.521937
    },
    {
      "weights": [
        -0.398981,
        -0.101385,
        -0.30386,
        0.100843,
        0.725596,
        0.06812,
        0.084994,
        1.014039,
        -0.017818,
        -0.085317,
        0.222027,
        -0.147208,
        -0.21461,
        0.033903,
        0.400248,
        -0.085287,
        -0.049747,
        0.239391,
        -0.131458,
        -0.109654,
        0.205333,
        -0.321572,
        -0.050196,
        0.31067,
        0.33375,
        0.14076,
        0.104422,
        0.009888,
        -0.12008,
        -0.055873,
        0.008105,
        -0.035031
      ],
      "bias": -0.081671
    },
    {
      "weights": [
        0.017169,
        0.097965,
        -0.03562,
        0.127364,
        -0.056413,
        -0.024856,
        -0.070891,
        -0.481836,
        0.021505,
        0.026547,
        0.302641,
        -0.044659,
        0.508118,
        -0.150602,
        -0.325893,
        -0.077741,
        -0.075594,
        -0.055051,
        0.011371,
        -0.302611,
        -0.289763,
        -0.061248,
        -0.070735,
        1.326823,
        0.203391,
        -0.127268,
        0.147865,
        0.006519,
        0.062427,
        0.007098,
        -0.106242,
        0.041664
      ],
      "bias": 0.010535
    },
    {
      "weights": [
        -0.002065,
        -0.309448,
        0.50639,
        -0.022535,
        -0.09276,
        -0.366978,
        0.810835,
        0.384698,
        -0.246536,
        -0.043238,
        0.40173,
        0.034618,
        -0.163852,
        0.076595,
        0.037975,
        0.067664,
        -0.650618,
        0.025523,
        0.097006,
        0.702476,
        0.686328,
        0.330717,
        0.913973,
        0.865289,
        1.015953,
        0.321751,
        0.405084,
        -0.642863,
        -0.177477,
        0.507684,
        0.023381,
        0.161534
      ],
      "bias": 0.162642
    },
    {
      "weights": [
        -0.228779,
        0.049557,
        0.183118,
        -0.149934,
        -0.031384,
        0.003895,
        0.075843,
        -0.286035,
        0.01509,
        -0.012019,
        -0.000821,
        0.328044,
        -0.708838,
        0.440283,
        -0.048797,
        0.141117,
        -0.117831,
        -0.058238,
        -0.04917,
        -0.013978,
        -0.032769,
        0.015495,
        0.238664,
        0.447526,
        -0.014118,
        -0.326177,
        0.207262,
        0.124611,
        -0.041066,
        0.28788,
        -0.308604,
        0.175292
      ],
      "bias": -0.088822
    },
    {
      "weights": [
        -0.206833,
        0.003942,
        -0.134004,
        -0.086724,
        0.255205,
        0.077199,
        0.062328,
        -0.706833,
        -0.109693,
        -0.143609,
        0.457397,
        -0.237054,
        -0.204659,
        0.146255,
        0.016035,
        0.279125,
        -0.031456,
        -0.073759,
        0.109381,
        -0.054112,
        -0.018902,
        -0.124628,
        -0.658913,
        -0.077392,
        0.39117,
        0.048792,
        -0.051966,
        -0.179669,
        -0.038234,
        0.08072,
        -0.00014,
        -0.169327
      ],
      "bias": 0.205122
    },
    {
      "weights": [
        -0.89737,
        0.012937,
        0.16448,
        0.081682,
        -0.230297,
        -0.13494,
        -0.008215,
        0.183725,
        0.011456,
        0.174235,
        -0.006638,
        -0.11138,
        0.226889,
        -0.243362,
        -0.049212,
        0.194093,
        0.213144,
        0.089896,
        0.009939,
        0.189749,
        0.00824,
        0.14336,
        0.105577,
        -0.96975,
        0.340582,
        -0.091862,
        -0.055125,
        -0.135866,
        0.129628,
        -0.068977,
        0.132514,
        0.135614
      ],
      "bias": 0.155931
    },
    {
      "weights": [
        1.095621,
        -0.120788,
        -0.110496,
        0.102009,
        0.000101,
        -0.090067,
        -0.051797,
        0.068315,
        -0.151634,
        -0.070455,
        0.183701,
        -0.373024,
        0.26486,
        -0.111871,
        -0.055727,
        -0.221571,
        -0.174598,
        -0.18808,
        0.036076,
        -0.089389,
        -0.098349,
        -0.046822,
        0.261746,
        -0.98452,
        0.222085,
        -0.109349,
        -0.280581,
        -0.236382,
        0.027275,
        -0.122201,
        0.015333,
        -0.068273
      ],
      "bias": 0.403417
    },
    {
      "weights": [
        0.699539,
        1.229422,
        2.21472,
        1.399446,
        0.857854,
        -0.054851,
        0.312032,
        0.027388,
        0.324253,
        -0.362562,
        -1.494996,
        -0.012192,
        -0.052101,
        0.509966,
        -0.039692,
        -0.099728,
        0.203284,
        -0.258086,
        0.831744,
        0.086444,
        0.393969,
        0.321754,
        -0.394,
        0.739231,
        0.462953,
        -0.1399,
        0.546963,
        -0.29689,
        -0.138896,
        -0.116952,
        -0.55518,
        0.164023
      ],
      "bias": 1.241758
    },
    {
      "weights": [
        -0.075516,
        5.653967,
        -0.299997,
        0.37015,
        0.581337,
        -0.350915,
        0.473568,
        0.217536,
        -0.036707,
        0.41198,
        1.464616,
        -0.345569,
        -0.320445,
        0.232533,
        0.054794,
        0.015873,
        -0.238828,
        0.861165,
        -0.438914,
        0.731912,
        0.292308,
        -0.01337,
        0.488249,
        0.129235,
        0.330104,
        0.421289,
        0.383612,
        -0.206533,
        0.025198,
        -0.124915,
        -0.173259,
        0.060949
      ],
      "bias": 0.430542
    },
    {
      "weights": [
        -0.372199,
        0.192546,
        0.575453,
        0.273646,
        0.484875,
        -0.502856,
        0.053247,
        1.03187,
        -0.194807,
        0.354481,
        -0.0244,
        0.042002,
        0.271928,
        -0.742292,
        -0.038117,
        0.454216,
        0.443859,
        0.289624,
        -0.195699,
        0.317479,
        0.078879,
        -0.562921,
        0.184463,
        0.11039,
        0.074888,
        0.382275,
        0.070958,
        -0.191245,
        0.067491,
        -0.065036,
        0.229911,
        0.162418
      ],
      "bias": -0.078629
    },
    {
      "weights": [
        0.033347,
        -0.009105,
        0.002744,
        -0.137003,
        -0.080083,
        -0.016757,
        -0.221446,
        3.987269,
        0.177867,
        0.067405,
        0.019254,
        -0.015589,
        0.05538,
        -0.089025,
        -0.173329,
        -0.084763,
        0.113087,
        0.140143,
        -0.090658,
        0.081428,
        -0.139797,
        -0.03386,
        -0.06897,
        -0.260573,
        -0.287869,
        -0.159115,
        0.002941,
        -0.080198,
        0.000923,
        -0.222281,
        0.014628,
        -0.343661
      ],
      "bias": -0.576651
    },
    {
      "weights": [
        0.442717,
        0.095275,
        -0.865173,
        0.029932,
        -0.437392,
        0.010295,
        -0.201068,
        0.010877,
        -0.349347,
        -0.056668,
        -0.525408,
        0.487655,
        0.328856,
        -0.41684,
        -0.200523,
        0.608228,
        -0.305909,
        -0.374519,
        0.170723,
        -0.683018,
        -0.254583,
        -0.680634,
        -0.280769,
        -0.122139,
        -0.408344,
        -0.304718,
        -0.241984,
        0.070816,
        -0.247399,
        -0.007064,
        0.299948,
        -0.319791
      ],
      "bias": -0.27988
    },
    {
      "weights": [
        0.270187,
        0.8586,
        1.159852,
        -0.01223,
        -0.086082,
        -0.436428,
        0.200909,
        0.227057,
        -0.051558,
        0.130612,
        -0.241319,
        0.008309,
        0.337448,
        -0.628509,
        0.126114,
        -0.145587,
        0.983677,
        0.568531,
        -0.136195,
        0.066009,
        0.199947,
        0.210574,
        0.857861,
        0.764787,
        0.335225,
        0.568967,
        0.215094,
        0.963206,
        0.120872,
        -0.421711,
        -0.250655,
        -0.074451
      ],
      "bias": -0.250142
    },
    {
      "weights": [
        -0.567728,
        -0.270719,
        0.319446,
        -0.050295,
        -0.613944,
        -0.347616,
        -0.540471,
        0.451583,
        -0.417992,
        0.341896,
        0.854121,
        -0.257927,
        0.098096,
        -0.952473,
        0.40723,
        -0.518062,
        -0.354872,
        -0.089782,
        -0.888309,
        0.564998,
        -0.217444,
        -1.255966,
        -0.21878,
        -0.892451,
        -0.582019,
        -0.347789,
        -0.5289,
        0.019356,
        0.198716,
        0.363425,
        -0.300334,
        -0.165994
      ],
      "bias": 0.088927
    },
    {
      "weights": [
        -0.248298,
        0.09377,
        0.136439,
        -0.042662,
        -0.128697,
        -0.162709,
        0.018307,
        0.111494,
        0.077437,
        0.057858,
        0.581009,
        0.252208,
        -0.23241,
        -0.581291,
        -0.07995,
        0.078793,
        0.016255,
        0.131145,
        0.070512,
        0.016878,
        0.081122,
        0.00093,
        0.245321,
        -0.196716,
        -0.28807,
        0.466157,
        0.060888,
        -0.169384,
        0.037405,
        0.093103,
        0.161903,
        -0.041268
      ],
      "bias": -0.320786
    },
    {
      "weights": [
        0.463729,
        -0.048441,
        0.108682,
        0.099453,
        0.218961,
        -0.173506,
        0.059895,
        -0.053511,
        -0.090546,
        0.049559,
        -0.0787,
        0.284685,
        0.075391,
        -0.334941,
        -0.033948,
        0.214116,
        -0.078036,
        -0.109721,
        -0.061491,
        -0.021049,
        0.079019,
        -0.25332,
        -0.291143,
        0.221394,
        -0.061225,
        -0.358859,
        0.128299,
        -0.005638,
        0.007534,
        0.104155,
        0.221945,
        0.205759
      ],
      "bias": -0.418487
    },
    {
      "weights": [
        0.161185,
        -0.02605,
        0.219978,
        -0.011947,
        -0.117589,
        -0.107546,
        -0.052651,
        0.18798,
        -0.077024,
        0.167388,
        -0.311368,
        0.025709,
        0.089271,
        -0.007316,
        -0.075319,
        0.367677,
        0.137444,
        -0.14246,
        -0.203952,
        0.081949,
        0.107865,
        -0.000331,
        0.055718,
        -0.051055,
        0.506592,
        0.510927,
        0.057142,
        -0.009577,
        0.125631,
        0.017358,
        0.105982,
        0.125105
      ],
      "bias": -0.233372
    },
    {
      "weights": [
        -0.177397,
        0.01924,
        -0.073332,
        0.024997,
        -0.249011,
        -0.032744,
        0.008213,
        -0.178153,
        -0.119813,
        -0.027827,
        0.114457,
        -0.428269,
        0.255522,
        0.337181,
        -0.007428,
        0.16853,
        -0.113404,
        -0.110943,
        -0.089381,
        -0.206974,
        0.012783,
        0.019214,
        -0.45278,
        0.596805,
        -0.320285,
        0.115811,
        0.072298,
        -0.076636,
        0.13369,
        -0.142089,
        -0.314174,
        -0.000208
      ],
      "bias": 0.532985
    },
    {
      "weights": [
        -0.607493,
        -0.233758,
        -0.31451,
        0.125013,
        0.260559,
        0.132234,
        1.41098,
        0.148984,
        -1.218218,
        0.096274,
        0.24537,
        -0.050452,
        -0.045795,
        -0.131455,
        0.131173,
        0.208829,
        0.052903,
        0.089502,
        0.102214,
        0.222114,
        0.823289,
        0.389428,
        1.241643,
        1.225955,
        1.773725,
        0.388071,
        -0.398052,
        -0.149483,
        -0.033993,
        -0.024856,
        0.080054,
        0.248549
      ],
      "bias": 0.242321
    },
    {
      "weights": [
        0.25834,
        -0.024261,
        0.140496,
        -0.117699,
        -0.265664,
        0.020317,
        -0.003977,
        0.418198,
        0.084745,
        -0.085492,
        -0.155445,
        0.463299,
        -0.290877,
        0.039075,
        0.200269,
        0.006027,
        -0.160794,
        -0.046753,
        -0.036178,
        -0.095891,
        -0.119854,
        0.124601,
        -0.596219,
        0.299154,
        0.341465,
        0.110662,
        0.158221,
        0.071112,
        0.004252,
        0.034123,
        -0.183875,
        -0.113355
      ],
      "bias": -0.328048
    }
  ],
  "output": [
    {
      "weights": [
        0.229503,
        0.148592,
        0.085265,
        0.115613,
        0.064813,
        0.312033,
        -1.005416,
        -0.106007,
        -0.163522,
        -0.029491,
        0.047514,
        -0.104419,
        -0.126882,
        -0.074229,
        0.033544,
        -0.464801,
        0.155499,
        0.04386,
        -0.969635,
        -0.392995,
        -0.283367,
        -0.161707,
        0.055001,
        -0.143983,
        -0.046548,
        0.087841,
        -0.689001,
        0.307333
      ],
      "bias": 0.023439
    },
    {
      "weights": [
        0.06708,
        -0.020265,
        0.08783,
        0.403936,
        0.181909,
        -0.123411,
        -0.02418,
        -0.062525,
        -0.02753,
        0.003403,
        0.264773,
        0.037248,
        -0.159191,
        -0.078233,
        -0.09513,
        0.033626,
        0.045189,
        -0.137252,
        -0.00378,
        -0.146584,
        -0.001614,
        0.053482,
        -0.173376,
        0.018331,
        0.08116,
        -0.048395,
        0.359424,
        0.016058
      ],
      "bias": -0.108694
    },
    {
      "weights": [
        0.547311,
        -0.020339,
        -0.235197,
        0.507591,
        0.211642,
        0.073463,
        -0.024149,
        -0.059065,
        -0.032574,
        0.110954,
        0.240213,
        -0.0791,
        -0.022607,
        -0.007082,
        0.034619,
        -0.110928,
        -1.051828,
        -0.03534,
        -0.035529,
        -0.125818,
        0.051571,
        -0.137134,
        -0.095438,
        -0.03038,
        0.102768,
        0.116543,
        0.31262,
        -0.098031
      ],
      "bias": 0.692499
    },
    {
      "weights": [
        -0.079558,
        0.019158,
        -0.227479,
        -0.041157,
        0.088455,
        -0.027016,
        -0.16847,
        0.061665,
        -0.022164,
        -0.09583,
        -0.05961,
        0.197616,
        0.023751,
        -0.086243,
        -0.126025,
        0.052001,
        0.430579,
        -0.098827,
        0.007969,
        0.154591,
        0.126065,
        -0.076278,
        0.071124,
        0.075595,
        0.041665,
        -0.164859,
        0.416725,
        0.076696
      ],
      "bias": -0.390475
    },
    {
      "weights": [
        0.076666,
        -0.218842,
        -0.056576,
        0.06421,
        0.01528,
        0.061884,
        -0.127027,
        0.14726,
        -0.064522,
        0.089886,
        -0.029373,
        -0.190095,
        -0.038712,
        0.026873,
        -0.008474,
        0.575233,
        0.481819,
        -0.089387,
        0.011842,
        0.25029,
        0.089075,
        0.276785,
        0.221749,
        0.221735,
        0.049811,
        -0.223204,
        0.437247,
        -0.03596
      ],
      "bias": -0.552494
    },
    {
      "weights": [
        -0.431684,
        0.054284,
        -0.147859,
        -0.161067,
        -0.038544,
        -0.035499,
        -0.119232,
        0.017415,
        -0.055996,
        0.074983,
        0.068544,
        0.003313,
        -0.141145,
        -0.130115,
        0.082355,
        -0.039338,
        0.619823,
        -0.158735,
        0.02928,
        0.041676,
        0.1304,
        -0.023746,
        0.015887,
        0.003052,
        0.02047,
        -0.172363,
        0.441509,
        -0.098649
      ],
      "bias": -0.491344
    },
    {
      "weights": [
        -0.066566,
        -0.016973,
        -0.099563,
        -0.157625,
        0.075112,
        0.013179,
        0.210684,
        -0.26905,
        -0.0744,
        0.024496,
        0.195069,
        -0.008006,
        -0.102499,
        -0.17621,
        0.145999,
        0.144912,
        -0.149311,
        0.014456,
        0.046453,
        -0.151815,
        -0.245612,
        -0.011502,
        0.003265,
        0.110593,
        0.115605,
        -0.040426,
        0.494216,
        0.093699
      ],
      "bias": -0.285482
    },
    {
      "weights": [
        -0.123099,
        0.030212,
        -0.102229,
        -0.013991,
        -0.053843,
        -0.089902,
        0.210742,
        0.295911,
        -0.09808,
        0.05637,
        0.058885,
        -0.12649,
        2.5e-05,
        -0.115123,
        0.138871,
        0.182367,
        0.098453,
        0.044998,
        -0.023282,
        -0.230905,
        0.270838,
        -0.201161,
        -0.029218,
        0.044361,
        0.251723,
        -0.067598,
        0.453562,
        0.099856
      ],
      "bias": -0.404131
    },
    {
      "weights": [
        0.239733,
        -0.126395,
        -0.09217,
        -0.221956,
        0.014794,
        0.059143,
        0.269058,
        -0.269045,
        0.083901,
        0.135445,
        -0.277927,
        0.011931,
        -0.140665,
        -0.166771,
        -0.11821,
        -0.081706,
        -0.325526,
        -0.103155,
        -0.014014,
        0.057305,
        0.219175,
        -0.037839,
        -0.032423,
        0.033279,
        0.123752,
        0.012164,
        0.33835,
        0.015429
      ],
      "bias": -0.077987
    },
    {
      "weights": [
        -0.188858,
        -0.05623,
        -0.055762,
        -0.430805,
        -0.008168,
        0.093797,
        0.276459,
        0.066302,
        0.117682,
        0.115946,
        0.395804,
        0.000943,
        -0.106439,
        -0.167079,
        -0.073344,
        -0.081004,
        -0.508421,
        -0.0468,
        -0.064262,
        -0.013344,
        0.344222,
        -0.047966,
        -0.011724,
        0.060234,
        0.115349,
        0.064808,
        0.183965,
        0.027687
      ],
      "bias": -0.058135
    },
    {
      "weights": [
        -0.011936,
        -0.071121,
        -0.033633,
        0.059984,
        0.071321,
        0.147254,
        -0.046828,
        -0.014232,
        -0.028376,
        0.146894,
        0.149656,
        0.148144,
        0.046075,
        0.141584,
        0.126109,
        0.014449,
        0.019276,
        -0.009977,
        -0.018299,
        -0.033934,
        0.145726,
        -0.111125,
        -0.226722,
        0.091699,
        -0.101366,
        -0.191498,
        0.471404,
        0.124383
      ],
      "bias": -0.306827
    },
    {
      "weights": [
        -0.059089,
        0.163493,
        0.082212,
        0.013225,
        0.064016,
        -0.001539,
        0.084371,
        -0.08937,
        0.116089,
        0.03877,
        -0.113657,
        -0.027157,
        0.14271,
        -0.210068,
        0.073219,
        0.08595,
        0.001812,
        0.174527,
        -0.033815,
        -0.134539,
        0.045922,
        -0.085291,
        -0.010895,
        0.139584,
        -0.046559,
        -0.0879,
        0.382173,
        -0.036858
      ],
      "bias": -0.266502
    },
    {
      "weights": [
        -0.092074,
        -0.011863,
        -0.016675,
        0.245154,
        0.017319,
        0.039613,
        -0.002318,
        -0.172804,
        -0.062055,
        0.193596,
        0.093888,
        0.010892,
        -0.083734,
        -0.105334,
        -0.101656,
        -0.059337,
        0.366953,
        0.033728,
        0.00531,
        0.265868,
        0.200034,
        -0.168497,
        0.001147,
        0.078165,
        0.12562,
        -0.02178,
        0.350533,
        -0.015126
      ],
      "bias": -0.236948
    }
  ],
  "targetOutput": [
    {
      "weights": [
        -0.023272,
        -0.037146,
        -0.009975,
        -0.008305,
        -0.066061,
        0.048677,
        0.011462,
        -0.061448,
        0.088199,
        0.113857,
        0.045833,
        0.023452,
        0.160173,
        0.083923,
        0.069468,
        0.00675,
        -0.011561,
        -0.036043,
        -0.007637,
        0.058881,
        0.064532,
        0.028399,
        -0.141458,
        -0.153891,
        0.169104,
        -0.200126,
        0.005923,
        0.08552
      ],
      "bias": 0.947989
    },
    {
      "weights": [
        4.2e-05,
        9.8e-05,
        -0.000217,
        -5.5e-05,
        0.000188,
        -0.000341,
        3.2e-05,
        0.000156,
        0.000133,
        0.000242,
        -0.000114,
        8.2e-05,
        -0.000381,
        0.000413,
        5.3e-05,
        -2.8e-05,
        -1e-05,
        0.000197,
        -4e-05,
        -8.4e-05,
        -6.4e-05,
        -0.000125,
        7e-05,
        0.000325,
        -0.000288,
        0.00012,
        4e-05,
        0.000177
      ],
      "bias": -3.2e-05
    },
    {
      "weights": [
        1.9e-05,
        -2.7e-05,
        -1.6e-05,
        -1.7e-05,
        7.2e-05,
        -8.7e-05,
        -3.8e-05,
        1.3e-05,
        3.4e-05,
        6.7e-05,
        -1.2e-05,
        7.6e-05,
        -2.4e-05,
        4.8e-05,
        3.4e-05,
        -1.9e-05,
        -5e-06,
        -1.6e-05,
        4.7e-05,
        -4.8e-05,
        -2.7e-05,
        -9e-06,
        4.2e-05,
        8.4e-05,
        2.6e-05,
        -1.2e-05,
        -3.1e-05,
        -4.3e-05
      ],
      "bias": -1.3e-05
    },
    {
      "weights": [
        0.000105,
        0.000203,
        -0.000473,
        -0.000131,
        0.000452,
        -0.000765,
        4.2e-05,
        0.000328,
        0.000297,
        0.000558,
        -0.000242,
        0.000203,
        -0.000821,
        0.0009,
        0.000119,
        -6.9e-05,
        -2.7e-05,
        0.000379,
        -6.2e-05,
        -0.000201,
        -0.000149,
        -0.000262,
        0.00018,
        0.000744,
        -0.000587,
        0.000242,
        7e-05,
        0.000357
      ],
      "bias": -7.2e-05
    },
    {
      "weights": [
        -0.000118,
        -0.000113,
        0.000421,
        0.000137,
        -0.000501,
        0.000799,
        3.2e-05,
        -0.000303,
        -0.000312,
        -0.000583,
        0.000226,
        -0.000316,
        0.000727,
        -0.000836,
        -0.000168,
        9.2e-05,
        3e-05,
        -0.000302,
        -3.7e-05,
        0.000257,
        0.000175,
        0.000239,
        -0.000223,
        -0.000768,
        0.000446,
        -0.000181,
        0.0,
        -0.000215
      ],
      "bias": 8.5e-05
    },
    {
      "weights": [
        0.008564,
        -0.0479,
        -0.036797,
        -0.005204,
        -0.026316,
        0.029027,
        -0.027162,
        -0.008603,
        -0.002212,
        0.056062,
        -0.010239,
        -0.014842,
        -0.01802,
        -0.100476,
        -0.073292,
        -0.003732,
        -0.004996,
        0.0311,
        0.010748,
        -0.027743,
        -0.023108,
        -0.007353,
        -0.040543,
        -0.014438,
        0.036672,
        -0.025541,
        0.010649,
        -0.020064
      ],
      "bias": 0.446747
    },
    {
      "weights": [
        0.00543,
        -0.039239,
        -0.025867,
        -0.00278,
        -0.027194,
        0.031216,
        -0.020634,
        -0.009505,
        -0.004873,
        0.038376,
        -0.006435,
        -0.015284,
        -0.008051,
        -0.088218,
        -0.060408,
        -0.002118,
        -0.003827,
        0.023737,
        0.007617,
        -0.019194,
        -0.016605,
        -0.003903,
        -0.035533,
        -0.019672,
        0.032629,
        -0.021527,
        0.008592,
        -0.017709
      ],
      "bias": 0.498336
    },
    {
      "weights": [
        0.008818,
        -0.028271,
        0.032659,
        0.000162,
        0.015222,
        0.074524,
        0.004675,
        -0.018924,
        -0.080043,
        -0.035676,
        0.020004,
        -0.012014,
        0.062368,
        -0.189278,
        0.082064,
        -0.002538,
        -0.000695,
        0.002184,
        0.002531,
        -0.009782,
        0.012427,
        -0.0019,
        -0.002815,
        -0.041933,
        0.079825,
        -0.059534,
        -0.00011,
        0.014069
      ],
      "bias": 0.673572
    },
    {
      "weights": [
        0.004571,
        -0.064381,
        0.032071,
        -3.6e-05,
        0.002485,
        0.020314,
        0.002017,
        -0.007461,
        0.039703,
        0.023415,
        0.00071,
        0.125546,
        -0.057876,
        -0.05042,
        0.083791,
        0.005591,
        -0.001616,
        0.006362,
        0.005844,
        0.007674,
        -0.016947,
        -0.00381,
        0.028382,
        -0.09503,
        0.09135,
        -0.061399,
        -0.003756,
        -0.132957
      ],
      "bias": 0.270021
    },
    {
      "weights": [
        0.00382,
        -0.047648,
        0.022621,
        -0.000495,
        0.003812,
        0.012551,
        0.001617,
        -0.004426,
        0.030891,
        0.0198,
        -0.000131,
        0.09503,
        -0.046175,
        -0.034819,
        0.063458,
        0.003914,
        -0.001304,
        0.005817,
        0.004278,
        0.00504,
        -0.013319,
        -0.003693,
        0.021981,
        -0.068793,
        0.066653,
        -0.045348,
        -0.002671,
        -0.098652
      ],
      "bias": 0.232216
    },
    {
      "weights": [
        -0.003995,
        0.033034,
        -0.010572,
        -0.00319,
        0.0221,
        -0.080169,
        0.006077,
        0.002563,
        0.031577,
        0.018279,
        0.000466,
        -0.04434,
        -0.026634,
        -0.009729,
        -0.024733,
        0.000292,
        -0.00311,
        0.005294,
        -0.0046,
        0.003342,
        0.000966,
        0.001674,
        0.082947,
        -0.046359,
        0.069359,
        0.031544,
        0.004221,
        0.01151
      ],
      "bias": 0.374409
    },
    {
      "weights": [
        -0.004268,
        0.044606,
        -0.01696,
        -0.005398,
        0.034321,
        -0.113845,
        0.007375,
        0.005644,
        0.044714,
        0.029627,
        -0.000861,
        -0.056012,
        -0.04078,
        -0.006449,
        -0.031316,
        -0.000374,
        -0.004525,
        0.008929,
        -0.004988,
        0.002046,
        -0.000175,
        0.000408,
        0.113192,
        -0.055455,
        0.089504,
        0.04325,
        0.00556,
        0.016407
      ],
      "bias": 0.47181
    },
    {
      "weights": [
        -2.2e-05,
        -8.4e-05,
        0.000128,
        3e-05,
        -9e-05,
        0.00016,
        -3.5e-05,
        -7.9e-05,
        -6.1e-05,
        -0.000121,
        5.8e-05,
        1e-06,
        0.000223,
        -0.000229,
        -4e-06,
        7e-06,
        6e-06,
        -0.000103,
        5.3e-05,
        2.4e-05,
        2.4e-05,
        6.5e-05,
        -2.8e-05,
        -0.000165,
        0.000183,
        -7.6e-05,
        -4.3e-05,
        -0.000137
      ],
      "bias": 0.180011
    }
  ],
  "spellOutput": [
    {
      "weights": [
        0.000806,
        0.039127,
        0.000825,
        -0.005151,
        0.049887,
        -0.086612,
        0.015322,
        -0.00308,
        -0.002491,
        0.007915,
        0.010785,
        -0.082343,
        -0.010404,
        -0.145159,
        0.021118,
        -0.002581,
        -0.005121,
        0.020826,
        -0.008366,
        -0.004936,
        0.009318,
        -0.003959,
        0.135876,
        -0.099621,
        0.163063,
        0.014259,
        0.009322,
        0.038414
      ],
      "bias": 0.280087
    },
    {
      "weights": [
        -0.009652,
        0.074353,
        -0.022985,
        -0.006934,
        0.050773,
        -0.186087,
        0.012958,
        0.005097,
        0.072477,
        0.041336,
        0.001544,
        -0.101468,
        -0.058106,
        -0.025968,
        -0.056775,
        0.00026,
        -0.006861,
        0.012045,
        -0.008639,
        0.007578,
        0.002448,
        0.004861,
        0.193024,
        -0.110055,
        0.164261,
        0.071641,
        0.008048,
        0.023356
      ],
      "bias": 0.106622
    },
    {
      "weights": [
        0.007114,
        -0.047111,
        -0.033905,
        -0.004003,
        -0.032897,
        0.037461,
        -0.025782,
        -0.010792,
        -0.00371,
        0.050231,
        -0.008726,
        -0.019154,
        -0.013549,
        -0.107081,
        -0.075217,
        -0.002652,
        -0.004453,
        0.029119,
        0.008592,
        -0.025347,
        -0.021666,
        -0.005966,
        -0.043397,
        -0.021047,
        0.039806,
        -0.025725,
        0.011341,
        -0.02041
      ],
      "bias": 0.198063
    },
    {
      "weights": [
        -0.02521,
        -0.010396,
        0.006378,
        -0.009657,
        -0.004383,
        -0.003908,
        -0.002959,
        -0.024081,
        0.151305,
        0.174301,
        0.01574,
        0.057911,
        0.144316,
        0.100034,
        0.091934,
        -0.005052,
        -0.011338,
        0.010697,
        -0.009715,
        -0.010137,
        0.027959,
        -0.008037,
        -0.119889,
        -0.094048,
        0.145572,
        -0.210527,
        0.013107,
        0.079813
      ],
      "bias": 0.642431
    },
    {
      "weights": [
        -0.014906,
        0.033777,
        -0.030858,
        -0.006862,
        0.010281,
        -0.130847,
        0.007564,
        -0.010372,
        0.114639,
        0.1117,
        0.008366,
        -0.048797,
        0.022526,
        0.053992,
        0.004925,
        0.000373,
        -0.008746,
        0.003751,
        -0.009169,
        0.012623,
        0.021995,
        0.00296,
        0.065557,
        -0.13369,
        0.199974,
        -0.054606,
        0.008778,
        0.069099
      ],
      "bias": 0.485253
    }
  ],
  "valueOutput": {
    "weights": [
      0.064612,
      0.081748,
      -0.045159,
      -0.001013,
      0.045508,
      0.140027,
      -0.15688,
      0.002762,
      0.029638,
      -0.021111,
      0.039226,
      -0.032706,
      -0.060274,
      0.101102,
      0.004419,
      -0.233647,
      0.429691,
      0.165869,
      0.024949,
      -0.056211,
      0.15497,
      0.216703,
      0.052786,
      -0.042053,
      0.044939,
      -0.010173,
      0.035405,
      -0.060883
    ],
    "bias": 0.066894
  }
}